{
  "type": "NeuralNetwork",
  "sizes": [
    3,
    6,
    6,
    4
  ],
  "layers": [
    {
      "weights": [],
      "biases": []
    },
    {
      "weights": [
        [
          -3.69588565826416,
          8.126904487609863,
          -7.348761558532715
        ],
        [
          -7.138208866119385,
          1.9021984338760376,
          -18.767925262451172
        ],
        [
          -13.918901443481445,
          25.29951286315918,
          -6.109902858734131
        ],
        [
          2.4286530017852783,
          11.816307067871094,
          -27.67479705810547
        ],
        [
          -18.414623260498047,
          -15.855284690856934,
          2.0709779262542725
        ],
        [
          31.25408935546875,
          8.098546028137207,
          -32.90320587158203
        ]
      ],
      "biases": [
        2.63887357711792,
        1.4668680429458618,
        -3.472160816192627,
        19.812971115112305,
        9.145403861999512,
        -2.6937363147735596
      ]
    },
    {
      "weights": [
        [
          -3.4456796646118164,
          -2.0527055263519287,
          -3.7137670516967773,
          -2.994663715362549,
          0.12206966429948807,
          -4.612607479095459
        ],
        [
          -18.066999435424805,
          -2.140449047088623,
          -2.0742969512939453,
          -17.98085594177246,
          15.19545841217041,
          -8.595804214477539
        ],
        [
          -1.4968971014022827,
          -9.32718563079834,
          -24.004737854003906,
          6.60868501663208,
          -13.633638381958008,
          0.3963962495326996
        ],
        [
          -8.001995086669922,
          -16.002891540527344,
          10.72619342803955,
          -14.018494606018066,
          13.312275886535645,
          9.197661399841309
        ],
        [
          -16.575109481811523,
          -2.669886350631714,
          -3.474708318710327,
          0.6490161418914795,
          -6.974520683288574,
          -1.6406382322311401
        ],
        [
          5.538416385650635,
          -9.500750541687012,
          2.219653844833374,
          6.286808967590332,
          -5.079556941986084,
          -8.016671180725098
        ]
      ],
      "biases": [
        1.541723370552063,
        4.579759120941162,
        11.158422470092773,
        0.5197106599807739,
        -1.1468263864517212,
        -8.493670463562012
      ]
    },
    {
      "weights": [
        [
          -4.362456798553467,
          3.2732772827148438,
          11.97138786315918,
          -11.208285331726074,
          -8.708161354064941,
          -7.7012939453125
        ],
        [
          0.11890280246734619,
          0.67556232213974,
          -0.3001347780227661,
          -1.3907783031463623,
          -0.0674033984541893,
          1.2048898935317993
        ],
        [
          1.6576451063156128,
          -2.730853319168091,
          0.5258252620697021,
          2.181595802307129,
          -1.3959870338439941,
          0.19528444111347198
        ],
        [
          -1.99008309841156,
          1.8938164710998535,
          -0.21208983659744263,
          -0.5658462643623352,
          1.5842756032943726,
          -1.6324001550674438
        ]
      ],
      "biases": [
        -10.879761695861816,
        -0.4086339771747589,
        -1.1599340438842773,
        -0.5743823051452637
      ]
    }
  ],
  "inputLookup": {
    "lapsLeft": 0,
    "tyreUsed": 1,
    "tyreLifeLeft": 2
  },
  "inputLookupLength": 3,
  "outputLookup": {
    "pitstop": 0,
    "nextTyreSoft": 1,
    "nextTyreMedium": 2,
    "nextTyreHard": 3
  },
  "outputLookupLength": 4,
  "options": {
    "inputSize": 0,
    "outputSize": 0,
    "binaryThresh": 0.5,
    "iterations": 10000,
    "errorThresh": 0.005,
    "learningRate": 0.1,
    "hiddenLayers": [
      6,
      6
    ],
    "log": true,
    "logPeriod": 100
  },
  "trainOpts": {
    "activation": "sigmoid",
    "iterations": 10000,
    "errorThresh": 0.005,
    "log": true,
    "logPeriod": 100,
    "leakyReluAlpha": 0.01,
    "learningRate": 0.1,
    "momentum": 0.1,
    "callbackPeriod": 10,
    "timeout": "Infinity",
    "beta1": 0.9,
    "beta2": 0.999,
    "epsilon": 1e-8
  }
}